{
    "accuracy_list": [
        0.5,
        0.5,
        0.5,
        0.5,
        0.5,
        0.5,
        0.5,
        0.5,
        0.5,
        0.5
    ],
    "bias_history": [
        -0.003920000000000008,
        -0.007840000000000017,
        -0.011760000000000027,
        -0.015680000000000034,
        -0.019599999999999874,
        -0.023519999999999715,
        -0.027439999999999555,
        -0.031359999999999395,
        -0.035279999999999236,
        -0.039199999999999076
    ],
    "weight_history": [
        [
            0.5061800969069921,
            0.08911542630993119,
            0.20552142898283912,
            -0.1444285927674018,
            0.6425797355277989,
            -0.278851986980374,
            0.9963946511475938,
            -0.6343070579072256,
            0.566433331194909,
            0.29979917366015313,
            0.728768870635895,
            -0.14567374266041155,
            -0.15650471793756096,
            0.5996105156690947,
            -0.10129400028030949,
            -0.021028718366977117,
            0.6545452923363566,
            0.5479246845971051,
            0.6742956930081545,
            -0.9099656172984143,
            -0.5661037125632566,
            0.8550887524317039,
            -0.44710276151559736,
            0.8025726535814823,
            -0.7387566899297822,
            0.7981256599036375,
            0.6049906556161972,
            0.9866777959343755,
            0.39646098947938313,
            -0.1662435139511395,
            -0.15466998646369431,
            0.5490662677564466,
            0.819169046723309,
            0.6960587921220214,
            0.08306783093931545,
            -0.8195824963310898,
            -0.7871983193567205,
            -0.08253632457550093,
            0.1679259989231912,
            -0.4786322778116219,
            0.387501889256904,
            0.8231254295180215,
            0.5486011409844198,
            0.29389130877251385,
            -0.8016876797502603,
            -0.6944295964525207,
            0.9846344741907047,
            0.7367838335926906,
            -0.044249142280823495,
            0.7492551472843434,
            0.4420541785164689,
            0.6694951949072534,
            0.02065794284372091,
            -0.3591121774023369,
            -0.4445156162982997,
            0.576538713489201,
            0.6834630628574019,
            -0.34924117922225073,
            0.6029949409791828,
            0.3941255291864806,
            0.5722011080711285,
            0.805779440499121,
            -0.624562330680311,
            0.17323248520264148,
            -0.20365403164056195,
            0.5845310170983522,
            0.16516482873797034,
            -0.496054334693526,
            -0.5146282544338721,
            -0.3826678682706333,
            0.4037040176777599,
            0.6273761296458729,
            0.24346428268371656,
            -0.4994295935945909,
            0.7394115826340752,
            -0.5701890570772323,
            -0.7841271297572723,
            -0.45540020199652764,
            -0.32977048585146884,
            -0.49679096182950405,
            -0.14189246996866067,
            -0.3875893410237784,
            -0.363827232972569,
            -0.3399760481956797,
            0.6064020259865854,
            -0.5582833863207501,
            0.8954232522871619,
            -0.23743565019894944,
            0.7586460575920595,
            0.24477966949215713,
            0.8351721334042228,
            0.8882853223693281,
            0.8705017733976737,
            0.34715404486842133,
            -0.20592943555935472,
            -0.7638056841780239,
            -0.14529128540226896,
            0.2805189561581581,
            0.744845892820343,
            -0.3663677411371835
        ],
        [
            0.5039000969069898,
            0.08719542630993127,
            0.20356142898283852,
            -0.1463885927674024,
            0.6402197355277965,
            -0.2806519869803733,
            0.9944746511475919,
            -0.6361870579072275,
            0.5645133311949071,
            0.2979991736601538,
            0.7266088706358929,
            -0.14791374266041224,
            -0.15838471793756154,
            0.5975305156690927,
            -0.10305400028030942,
            -0.023108718366977032,
            0.6522652923363543,
            0.545844684597103,
            0.6726556930081529,
            -0.9120056172984163,
            -0.5677837125632583,
            0.853208752431702,
            -0.4493427615155965,
            0.8005726535814803,
            -0.7405166899297839,
            0.7960056599036354,
            0.602710655616195,
            0.9845977959343735,
            0.3947009894793838,
            -0.16824351395114012,
            -0.15678998646369496,
            0.5471062677564447,
            0.8173290467233072,
            0.6943387921220197,
            0.08126783093931553,
            -0.8216624963310919,
            -0.7889183193567222,
            -0.08481632457550084,
            0.1659259989231906,
            -0.48023227781162126,
            0.3851018892569049,
            0.8211254295180195,
            0.5467211409844179,
            0.2920113087725146,
            -0.8034876797502621,
            -0.6963095964525226,
            0.9826744741907028,
            0.7344638335926883,
            -0.04600914228082342,
            0.7472151472843414,
            0.4404541785164695,
            0.6675751949072515,
            0.018417942843721002,
            -0.3611921774023361,
            -0.4465956162982989,
            0.574458713489199,
            0.6814230628573998,
            -0.3513211792222499,
            0.6008349409791807,
            0.39244552918648123,
            0.5702811080711265,
            0.8041394404991193,
            -0.626562330680313,
            0.17095248520264078,
            -0.20557403164056254,
            0.5825310170983502,
            0.16292482873796965,
            -0.49797433469352526,
            -0.5167882544338742,
            -0.3845478682706326,
            0.4015440176777607,
            0.6250961296458706,
            0.24154428268371597,
            -0.5010695935945917,
            0.7374915826340733,
            -0.5721490570772343,
            -0.785887129757274,
            -0.457080201996527,
            -0.3314504858514682,
            -0.49891096182950323,
            -0.1439724699686613,
            -0.38926934102377775,
            -0.36582723297256825,
            -0.34173604819567904,
            0.6042420259865833,
            -0.5598033863207517,
            0.8934232522871599,
            -0.23931565019895001,
            0.7568860575920577,
            0.24253966949215644,
            0.8331321334042208,
            0.886205322369326,
            0.8685417733976717,
            0.345434044868422,
            -0.20768943555935526,
            -0.765925684178026,
            -0.14725128540226956,
            0.2788789561581587,
            0.7427258928203408,
            -0.3679677411371829
        ],
        [
            0.5016200969069875,
            0.08527542630993135,
            0.20160142898283792,
            -0.148348592767403,
            0.6378597355277942,
            -0.2824519869803726,
            0.99255465114759,
            -0.6380670579072294,
            0.5625933311949052,
            0.2961991736601545,
            0.7244488706358907,
            -0.15015374266041293,
            -0.1602647179375621,
            0.5954505156690906,
            -0.10481400028030935,
            -0.025188718366976948,
            0.649985292336352,
            0.5437646845971009,
            0.6710156930081512,
            -0.9140456172984184,
            -0.56946371256326,
            0.8513287524317001,
            -0.4515827615155956,
            0.7985726535814783,
            -0.7422766899297857,
            0.7938856599036332,
            0.6004306556161927,
            0.9825177959343714,
            0.3929409894793845,
            -0.17024351395114073,
            -0.1589099864636956,
            0.5451462677564427,
            0.8154890467233054,
            0.6926187921220179,
            0.0794678309393156,
            -0.823742496331094,
            -0.7906383193567239,
            -0.08709632457550075,
            0.16392599892318999,
            -0.48183227781162064,
            0.38270188925690585,
            0.8191254295180175,
            0.544841140984416,
            0.2901313087725153,
            -0.8052876797502639,
            -0.6981895964525244,
            0.9807144741907008,
            0.732143833592686,
            -0.04776914228082335,
            0.7451751472843393,
            0.43885417851647013,
            0.6656551949072496,
            0.016177942843721094,
            -0.3632721774023353,
            -0.4486756162982981,
            0.5723787134891969,
            0.6793830628573978,
            -0.3534011792222491,
            0.5986749409791785,
            0.3907655291864819,
            0.5683611080711246,
            0.8024994404991177,
            -0.628562330680315,
            0.16867248520264008,
            -0.20749403164056313,
            0.5805310170983482,
            0.16068482873796897,
            -0.4998943346935245,
            -0.5189482544338764,
            -0.38642786827063186,
            0.39938401767776155,
            0.6228161296458683,
            0.23962428268371538,
            -0.5027095935945933,
            0.7355715826340714,
            -0.5741090570772363,
            -0.7876471297572758,
            -0.45876020199652634,
            -0.33313048585146754,
            -0.5010309618295038,
            -0.14605246996866195,
            -0.3909493410237771,
            -0.3678272329725675,
            -0.34349604819567836,
            0.6020820259865811,
            -0.5613233863207532,
            0.8914232522871579,
            -0.2411956501989506,
            0.755126057592056,
            0.24029966949215575,
            0.8310921334042187,
            0.884125322369324,
            0.8665817733976697,
            0.34371404486842266,
            -0.2094494355593558,
            -0.7680456841780281,
            -0.14921128540227016,
            0.27723895615815936,
            0.7406058928203387,
            -0.36956774113718227
        ],
        [
            0.49934009690698616,
            0.08335542630993142,
            0.19964142898283732,
            -0.1503085927674036,
            0.6354997355277918,
            -0.2842519869803719,
            0.9906346511475881,
            -0.6399470579072313,
            0.5606733311949033,
            0.2943991736601552,
            0.7222888706358885,
            -0.1523937426604136,
            -0.1621447179375627,
            0.5933705156690885,
            -0.10657400028030928,
            -0.027268718366976863,
            0.6477052923363498,
            0.5416846845970988,
            0.6693756930081496,
            -0.9160856172984204,
            -0.5711437125632617,
            0.8494487524316983,
            -0.45382276151559475,
            0.7965726535814763,
            -0.7440366899297874,
            0.7917656599036311,
            0.5981506556161904,
            0.9804377959343693,
            0.3911809894793852,
            -0.17224351395114135,
            -0.16102998646369626,
            0.5431862677564407,
            0.8136490467233035,
            0.6908987921220162,
            0.07766783093931567,
            -0.8258224963310961,
            -0.7923583193567256,
            -0.08937632457550065,
            0.16192599892318937,
            -0.48343227781162,
            0.3803018892569068,
            0.8171254295180155,
            0.5429611409844142,
            0.28825130877251604,
            -0.8070876797502657,
            -0.7000695964525263,
            0.9787544741906988,
            0.7298238335926837,
            -0.04952914228082328,
            0.7431351472843373,
            0.43725417851647075,
            0.6637351949072476,
            0.01393794284372111,
            -0.3653521774023345,
            -0.4507556162982973,
            0.5702987134891948,
            0.6773430628573958,
            -0.3554811792222483,
            0.5965149409791763,
            0.38908552918648254,
            0.5664411080711227,
            0.8008594404991161,
            -0.630562330680317,
            0.16639248520263938,
            -0.2094140316405637,
            0.5785310170983462,
            0.15844482873796828,
            -0.5018143346935263,
            -0.5211082544338785,
            -0.38830786827063113,
            0.3972240176777624,
            0.620536129645866,
            0.2377042826837148,
            -0.504349593594595,
            0.7336515826340695,
            -0.5760690570772382,
            -0.7894071297572776,
            -0.4604402019965257,
            -0.3348104858514669,
            -0.5031509618295059,
            -0.14813246996866258,
            -0.39262934102377645,
            -0.3698272329725667,
            -0.3452560481956777,
            0.599922025986579,
            -0.5628433863207547,
            0.8894232522871559,
            -0.24307565019895117,
            0.7533660575920542,
            0.23805966949215507,
            0.8290521334042167,
            0.8820453223693219,
            0.8646217733976678,
            0.34199404486842333,
            -0.21120943555935634,
            -0.7701656841780302,
            -0.15117128540227076,
            0.27559895615816,
            0.7384858928203366,
            -0.37116774113718165
        ],
        [
            0.49706009690698705,
            0.0814354263099315,
            0.19768142898283672,
            -0.1522685927674042,
            0.6331397355277895,
            -0.2860519869803712,
            0.9887146511475862,
            -0.6418270579072332,
            0.5587533311949013,
            0.2925991736601559,
            0.7201288706358864,
            -0.1546337426604143,
            -0.16402471793756326,
            0.5912905156690864,
            -0.1083340002803092,
            -0.029348718366976778,
            0.6454252923363475,
            0.5396046845970968,
            0.667735693008148,
            -0.9181256172984225,
            -0.5728237125632634,
            0.8475687524316964,
            -0.4560627615155939,
            0.7945726535814743,
            -0.7457966899297892,
            0.789645659903629,
            0.5958706556161881,
            0.9783577959343672,
            0.38942098947938586,
            -0.17424351395114196,
            -0.1631499864636969,
            0.5412262677564388,
            0.8118090467233017,
            0.6891787921220145,
            0.07586783093931575,
            -0.8279024963310981,
            -0.7940783193567273,
            -0.09165632457550056,
            0.15992599892318876,
            -0.4850322778116194,
            0.3779018892569077,
            0.8151254295180135,
            0.5410811409844123,
            0.28637130877251676,
            -0.8088876797502675,
            -0.7019495964525282,
            0.9767944741906969,
            0.7275038335926813,
            -0.05128914228082321,
            0.7410951472843352,
            0.43565417851647137,
            0.6618151949072457,
            0.011697942843721105,
            -0.3674321774023337,
            -0.4528356162982965,
            0.5682187134891927,
            0.6753030628573937,
            -0.3575611792222475,
            0.5943549409791742,
            0.3874055291864832,
            0.5645211080711208,
            0.7992194404991144,
            -0.632562330680319,
            0.16411248520263869,
            -0.2113340316405643,
            0.5765310170983442,
            0.1562048287379676,
            -0.5037343346935282,
            -0.5232682544338807,
            -0.3901878682706304,
            0.3950640176777632,
            0.6182561296458637,
            0.2357842826837142,
            -0.5059895935945966,
            0.7317315826340676,
            -0.5780290570772402,
            -0.7911671297572793,
            -0.46212020199652504,
            -0.33649048585146624,
            -0.505270961829508,
            -0.15021246996866322,
            -0.3943093410237758,
            -0.3718272329725659,
            -0.347016048195677,
            0.5977620259865768,
            -0.5643633863207562,
            0.8874232522871539,
            -0.24495565019895174,
            0.7516060575920525,
            0.23581966949215438,
            0.8270121334042146,
            0.8799653223693198,
            0.8626617733976658,
            0.340274044868424,
            -0.21296943555935688,
            -0.7722856841780323,
            -0.15313128540227136,
            0.2739589561581606,
            0.7363658928203345,
            -0.37276774113718103
        ],
        [
            0.49478009690698793,
            0.07951542630993158,
            0.19572142898283612,
            -0.1542285927674048,
            0.6307797355277871,
            -0.2878519869803705,
            0.9867946511475842,
            -0.643707057907235,
            0.5568333311948994,
            0.2907991736601566,
            0.7179688706358842,
            -0.15687374266041498,
            -0.16590471793756384,
            0.5892105156690843,
            -0.11009400028030913,
            -0.03142871836697669,
            0.6431452923363452,
            0.5375246845970947,
            0.6660956930081463,
            -0.9201656172984245,
            -0.574503712563265,
            0.8456887524316945,
            -0.458302761515593,
            0.7925726535814723,
            -0.747556689929791,
            0.7875256599036269,
            0.5935906556161858,
            0.9762777959343651,
            0.38766098947938654,
            -0.17624351395114257,
            -0.16526998646369756,
            0.5392662677564368,
            0.8099690467232998,
            0.6874587921220128,
            0.07406783093931582,
            -0.8299824963311002,
            -0.7957983193567291,
            -0.09393632457550047,
            0.15792599892318815,
            -0.4866322778116188,
            0.37550188925690864,
            0.8131254295180115,
            0.5392011409844104,
            0.2844913087725175,
            -0.8106876797502693,
            -0.7038295964525301,
            0.9748344741906949,
            0.725183833592679,
            -0.053049142280823136,
            0.7390551472843332,
            0.434054178516472,
            0.6598951949072438,
            0.009457942843721099,
            -0.3695121774023329,
            -0.4549156162982957,
            0.5661387134891906,
            0.6732630628573917,
            -0.3596411792222467,
            0.592194940979172,
            0.38572552918648384,
            0.5626011080711188,
            0.7975794404991128,
            -0.634562330680321,
            0.161832485202638,
            -0.2132540316405649,
            0.5745310170983422,
            0.1539648287379669,
            -0.5056543346935302,
            -0.5254282544338829,
            -0.39206786827062967,
            0.39290401767776406,
            0.6159761296458615,
            0.23386428268371362,
            -0.5076295935945982,
            0.7298115826340656,
            -0.5799890570772421,
            -0.7929271297572811,
            -0.4638002019965244,
            -0.3381704858514656,
            -0.5073909618295102,
            -0.15229246996866386,
            -0.39598934102377514,
            -0.37382723297256515,
            -0.3487760481956763,
            0.5956020259865746,
            -0.5658833863207577,
            0.8854232522871519,
            -0.24683565019895232,
            0.7498460575920507,
            0.2335796694921537,
            0.8249721334042126,
            0.8778853223693177,
            0.8607017733976638,
            0.33855404486842466,
            -0.21472943555935742,
            -0.7744056841780345,
            -0.15509128540227196,
            0.27231895615816126,
            0.7342458928203324,
            -0.3743677411371804
        ],
        [
            0.4925000969069888,
            0.07759542630993166,
            0.19376142898283552,
            -0.1561885927674054,
            0.6284197355277847,
            -0.2896519869803698,
            0.9848746511475823,
            -0.6455870579072369,
            0.5549133311948975,
            0.2889991736601573,
            0.715808870635882,
            -0.15911374266041567,
            -0.16778471793756441,
            0.5871305156690823,
            -0.11185400028030906,
            -0.03350871836697661,
            0.6408652923363429,
            0.5354446845970926,
            0.6644556930081447,
            -0.9222056172984265,
            -0.5761837125632667,
            0.8438087524316926,
            -0.46054276151559215,
            0.7905726535814703,
            -0.7493166899297927,
            0.7854056599036248,
            0.5913106556161836,
            0.9741977959343631,
            0.3859009894793872,
            -0.17824351395114318,
            -0.1673899864636982,
            0.5373062677564349,
            0.808129046723298,
            0.685738792122011,
            0.0722678309393159,
            -0.8320624963311023,
            -0.7975183193567308,
            -0.09621632457550038,
            0.15592599892318754,
            -0.48823227781161815,
            0.37310188925690957,
            0.8111254295180095,
            0.5373211409844085,
            0.2826113087725182,
            -0.8124876797502711,
            -0.705709596452532,
            0.972874474190693,
            0.7228638335926767,
            -0.054809142280823064,
            0.7370151472843312,
            0.4324541785164726,
            0.6579751949072419,
            0.007217942843721093,
            -0.3715921774023321,
            -0.4569956162982949,
            0.5640587134891886,
            0.6712230628573896,
            -0.3617211792222459,
            0.5900349409791699,
            0.3840455291864845,
            0.5606811080711169,
            0.7959394404991111,
            -0.636562330680323,
            0.1595524852026373,
            -0.21517403164056548,
            0.5725310170983402,
            0.15172482873796622,
            -0.5075743346935321,
            -0.527588254433885,
            -0.39394786827062894,
            0.3907440176777649,
            0.6136961296458592,
            0.23194428268371303,
            -0.5092695935945999,
            0.7278915826340637,
            -0.5819490570772441,
            -0.7946871297572828,
            -0.46548020199652373,
            -0.33985048585146493,
            -0.5095109618295123,
            -0.1543724699686645,
            -0.3976693410237745,
            -0.3758272329725644,
            -0.35053604819567563,
            0.5934420259865725,
            -0.5674033863207593,
            0.8834232522871499,
            -0.2487156501989529,
            0.7480860575920489,
            0.231339669492153,
            0.8229321334042106,
            0.8758053223693156,
            0.8587417733976619,
            0.33683404486842533,
            -0.21648943555935796,
            -0.7765256841780366,
            -0.15705128540227256,
            0.2706789561581619,
            0.7321258928203302,
            -0.3759677411371798
        ],
        [
            0.4902200969069897,
            0.07567542630993174,
            0.19180142898283492,
            -0.158148592767406,
            0.6260597355277824,
            -0.2914519869803691,
            0.9829546511475804,
            -0.6474670579072388,
            0.5529933311948956,
            0.287199173660158,
            0.7136488706358799,
            -0.16135374266041635,
            -0.169664717937565,
            0.5850505156690802,
            -0.11361400028030899,
            -0.035588718366976524,
            0.6385852923363406,
            0.5333646845970905,
            0.662815693008143,
            -0.9242456172984286,
            -0.5778637125632684,
            0.8419287524316907,
            -0.4627827615155913,
            0.7885726535814683,
            -0.7510766899297945,
            0.7832856599036226,
            0.5890306556161813,
            0.972117795934361,
            0.3841409894793879,
            -0.1802435139511438,
            -0.16950998646369886,
            0.5353462677564329,
            0.8062890467232962,
            0.6840187921220093,
            0.07046783093931597,
            -0.8341424963311044,
            -0.7992383193567325,
            -0.09849632457550028,
            0.15392599892318692,
            -0.48983227781161753,
            0.3707018892569105,
            0.8091254295180075,
            0.5354411409844066,
            0.28073130877251895,
            -0.8142876797502729,
            -0.7075895964525338,
            0.970914474190691,
            0.7205438335926744,
            -0.05656914228082299,
            0.7349751472843291,
            0.43085417851647323,
            0.65605519490724,
            0.004977942843721087,
            -0.3736721774023313,
            -0.4590756162982941,
            0.5619787134891865,
            0.6691830628573876,
            -0.3638011792222451,
            0.5878749409791677,
            0.38236552918648514,
            0.558761108071115,
            0.7942994404991095,
            -0.638562330680325,
            0.1572724852026366,
            -0.21709403164056607,
            0.5705310170983382,
            0.14948482873796554,
            -0.509494334693534,
            -0.5297482544338872,
            -0.3958278682706282,
            0.38858401767776574,
            0.6114161296458569,
            0.23002428268371244,
            -0.5109095935946015,
            0.7259715826340618,
            -0.583909057077246,
            -0.7964471297572846,
            -0.4671602019965231,
            -0.3415304858514643,
            -0.5116309618295144,
            -0.15645246996866513,
            -0.39934934102377384,
            -0.3778272329725636,
            -0.35229604819567495,
            0.5912820259865703,
            -0.5689233863207608,
            0.8814232522871479,
            -0.2505956501989531,
            0.7463260575920472,
            0.22909966949215232,
            0.8208921334042085,
            0.8737253223693136,
            0.8567817733976599,
            0.335114044868426,
            -0.2182494355593585,
            -0.7786456841780387,
            -0.15901128540227316,
            0.26903895615816253,
            0.7300058928203281,
            -0.37756774113717917
        ],
        [
            0.4879400969069906,
            0.07375542630993182,
            0.18984142898283432,
            -0.1601085927674066,
            0.62369973552778,
            -0.2932519869803684,
            0.9810346511475785,
            -0.6493470579072407,
            0.5510733311948937,
            0.2853991736601587,
            0.7114888706358777,
            -0.16359374266041704,
            -0.17154471793756557,
            0.5829705156690781,
            -0.11537400028030892,
            -0.03766871836697644,
            0.6363052923363384,
            0.5312846845970884,
            0.6611756930081414,
            -0.9262856172984306,
            -0.5795437125632701,
            0.8400487524316889,
            -0.4650227615155904,
            0.7865726535814663,
            -0.7528366899297962,
            0.7811656599036205,
            0.586750655616179,
            0.9700377959343589,
            0.3823809894793886,
            -0.1822435139511444,
            -0.1716299864636995,
            0.5333862677564309,
            0.8044490467232943,
            0.6822987921220076,
            0.06866783093931604,
            -0.8362224963311065,
            -0.8009583193567342,
            -0.10077632457550019,
            0.1519259989231863,
            -0.4914322778116169,
            0.36830188925691143,
            0.8071254295180055,
            0.5335611409844048,
            0.2788513087725197,
            -0.8160876797502747,
            -0.7094695964525357,
            0.968954474190689,
            0.7182238335926721,
            -0.05832914228082292,
            0.7329351472843271,
            0.42925417851647385,
            0.654135194907238,
            0.002737942843721081,
            -0.37575217740233047,
            -0.46115561629829327,
            0.5598987134891844,
            0.6671430628573856,
            -0.3658811792222443,
            0.5857149409791655,
            0.3806855291864858,
            0.5568411080711131,
            0.7926594404991079,
            -0.640562330680327,
            0.1549924852026359,
            -0.21901403164056665,
            0.5685310170983362,
            0.14724482873796485,
            -0.5114143346935359,
            -0.5319082544338893,
            -0.3977078682706275,
            0.3864240176777666,
            0.6091361296458546,
            0.22810428268371186,
            -0.5125495935946032,
            0.7240515826340599,
            -0.585869057077248,
            -0.7982071297572864,
            -0.46884020199652243,
            -0.34321048585146363,
            -0.5137509618295165,
            -0.15853246996866577,
            -0.4010293410237732,
            -0.3798272329725628,
            -0.35405604819567427,
            0.5891220259865682,
            -0.5704433863207623,
            0.8794232522871459,
            -0.25247565019895235,
            0.7445660575920454,
            0.22685966949215164,
            0.8188521334042065,
            0.8716453223693115,
            0.854821773397658,
            0.33339404486842666,
            -0.22000943555935903,
            -0.7807656841780408,
            -0.16097128540227376,
            0.26739895615816317,
            0.727885892820326,
            -0.37916774113717855
        ],
        [
            0.48566009690699147,
            0.0718354263099319,
            0.18788142898283372,
            -0.1620685927674072,
            0.6213397355277777,
            -0.2950519869803677,
            0.9791146511475766,
            -0.6512270579072426,
            0.5491533311948917,
            0.2835991736601594,
            0.7093288706358756,
            -0.16583374266041773,
            -0.17342471793756614,
            0.580890515669076,
            -0.11713400028030885,
            -0.039748718366976354,
            0.6340252923363361,
            0.5292046845970864,
            0.6595356930081397,
            -0.9283256172984327,
            -0.5812237125632718,
            0.838168752431687,
            -0.46726276151558954,
            0.7845726535814643,
            -0.754596689929798,
            0.7790456599036184,
            0.5844706556161767,
            0.9679577959343568,
            0.38062098947938927,
            -0.18424351395114502,
            -0.17374998646370016,
            0.531426267756429,
            0.8026090467232925,
            0.6805787921220059,
            0.06686783093931611,
            -0.8383024963311085,
            -0.802678319356736,
            -0.1030563245755001,
            0.1499259989231857,
            -0.4930322778116163,
            0.36590188925691236,
            0.8051254295180035,
            0.5316811409844029,
            0.2769713087725204,
            -0.8178876797502765,
            -0.7113495964525376,
            0.9669944741906871,
            0.7159038335926697,
            -0.06008914228082285,
            0.730895147284325,
            0.42765417851647447,
            0.6522151949072361,
            0.0004979428437210764,
            -0.37783217740232966,
            -0.46323561629829246,
            0.5578187134891823,
            0.6651030628573835,
            -0.3679611792222435,
            0.5835549409791634,
            0.37900552918648645,
            0.5549211080711112,
            0.7910194404991062,
            -0.642562330680329,
            0.1527124852026352,
            -0.22093403164056724,
            0.5665310170983342,
            0.14500482873796416,
            -0.5133343346935378,
            -0.5340682544338915,
            -0.39958786827062676,
            0.3842640176777674,
            0.6068561296458523,
            0.22618428268371127,
            -0.5141895935946048,
            0.722131582634058,
            -0.58782905707725,
            -0.7999671297572881,
            -0.4705202019965218,
            -0.344890485851463,
            -0.5158709618295186,
            -0.1606124699686664,
            -0.40270934102377254,
            -0.38182723297256205,
            -0.3558160481956736,
            0.586962025986566,
            -0.5719633863207638,
            0.8774232522871439,
            -0.2543556501989516,
            0.7428060575920437,
            0.22461966949215095,
            0.8168121334042044,
            0.8695653223693094,
            0.852861773397656,
            0.33167404486842733,
            -0.22176943555935957,
            -0.7828856841780429,
            -0.16293128540227436,
            0.2657589561581638,
            0.7257658928203239,
            -0.38076774113717793
        ]
    ],
    "P": 200,
    "protocol": "modified_shouval_array_linear",
    "param_dict": "{'eta_dict': {(-inf, 0.5): 0, (0.5, 0.6): 4e-05, (0.6, 0.8): 4e-05, (0.8, inf): 0}, 'FP_dict': {(-inf, 0.5): 0.25, (0.5, 0.6): -1, (0.6, 0.8): 1, (0.8, inf): 0.25}, 'soft_threshold': 0}"
}